digraph Tree {
node [shape=box] ;
0 [label="thall <= 2.5\ngini = 0.498\nsamples = 242\nvalue = [113, 129]\nclass = no"] ;
1 [label="oldpeak <= 2.05\ngini = 0.392\nsamples = 146\nvalue = [39, 107]\nclass = no"] ;
0 -> 1 [labeldistance=2.5, labelangle=45, headlabel="True"] ;
2 [label="caa <= 0.5\ngini = 0.312\nsamples = 129\nvalue = [25, 104]\nclass = no"] ;
1 -> 2 ;
3 [label="age <= 57.5\ngini = 0.192\nsamples = 93\nvalue = [10, 83]\nclass = no"] ;
2 -> 3 ;
4 [label="thall <= 1.5\ngini = 0.087\nsamples = 66\nvalue = [3, 63]\nclass = no"] ;
3 -> 4 ;
5 [label="gini = 0.444\nsamples = 6\nvalue = [2, 4]\nclass = no"] ;
4 -> 5 ;
6 [label="gini = 0.033\nsamples = 60\nvalue = [1, 59]\nclass = no"] ;
4 -> 6 ;
7 [label="age <= 64.5\ngini = 0.384\nsamples = 27\nvalue = [7, 20]\nclass = no"] ;
3 -> 7 ;
8 [label="gini = 0.455\nsamples = 20\nvalue = [7, 13]\nclass = no"] ;
7 -> 8 ;
9 [label="gini = 0.0\nsamples = 7\nvalue = [0, 7]\nclass = no"] ;
7 -> 9 ;
10 [label="cp <= 0.5\ngini = 0.486\nsamples = 36\nvalue = [15, 21]\nclass = no"] ;
2 -> 10 ;
11 [label="sex <= 0.5\ngini = 0.375\nsamples = 12\nvalue = [9, 3]\nclass = yes"] ;
10 -> 11 ;
12 [label="gini = 0.375\nsamples = 4\nvalue = [1, 3]\nclass = no"] ;
11 -> 12 ;
13 [label="gini = 0.0\nsamples = 8\nvalue = [8, 0]\nclass = yes"] ;
11 -> 13 ;
14 [label="slp <= 1.5\ngini = 0.375\nsamples = 24\nvalue = [6, 18]\nclass = no"] ;
10 -> 14 ;
15 [label="gini = 0.48\nsamples = 5\nvalue = [3, 2]\nclass = yes"] ;
14 -> 15 ;
16 [label="gini = 0.266\nsamples = 19\nvalue = [3, 16]\nclass = no"] ;
14 -> 16 ;
17 [label="cp <= 2.5\ngini = 0.291\nsamples = 17\nvalue = [14, 3]\nclass = yes"] ;
1 -> 17 ;
18 [label="age <= 40.5\ngini = 0.133\nsamples = 14\nvalue = [13, 1]\nclass = yes"] ;
17 -> 18 ;
19 [label="gini = 0.0\nsamples = 1\nvalue = [0, 1]\nclass = no"] ;
18 -> 19 ;
20 [label="gini = 0.0\nsamples = 13\nvalue = [13, 0]\nclass = yes"] ;
18 -> 20 ;
21 [label="slp <= 0.5\ngini = 0.444\nsamples = 3\nvalue = [1, 2]\nclass = no"] ;
17 -> 21 ;
22 [label="gini = 0.0\nsamples = 2\nvalue = [0, 2]\nclass = no"] ;
21 -> 22 ;
23 [label="gini = 0.0\nsamples = 1\nvalue = [1, 0]\nclass = yes"] ;
21 -> 23 ;
24 [label="cp <= 0.5\ngini = 0.353\nsamples = 96\nvalue = [74, 22]\nclass = yes"] ;
0 -> 24 [labeldistance=2.5, labelangle=-45, headlabel="False"] ;
25 [label="oldpeak <= 0.65\ngini = 0.172\nsamples = 63\nvalue = [57, 6]\nclass = yes"] ;
24 -> 25 ;
26 [label="trtbps <= 122.0\ngini = 0.457\nsamples = 17\nvalue = [11, 6]\nclass = yes"] ;
25 -> 26 ;
27 [label="trtbps <= 104.0\ngini = 0.375\nsamples = 4\nvalue = [1, 3]\nclass = no"] ;
26 -> 27 ;
28 [label="gini = 0.0\nsamples = 1\nvalue = [1, 0]\nclass = yes"] ;
27 -> 28 ;
29 [label="gini = 0.0\nsamples = 3\nvalue = [0, 3]\nclass = no"] ;
27 -> 29 ;
30 [label="thalachh <= 114.0\ngini = 0.355\nsamples = 13\nvalue = [10, 3]\nclass = yes"] ;
26 -> 30 ;
31 [label="gini = 0.0\nsamples = 1\nvalue = [0, 1]\nclass = no"] ;
30 -> 31 ;
32 [label="gini = 0.278\nsamples = 12\nvalue = [10, 2]\nclass = yes"] ;
30 -> 32 ;
33 [label="gini = 0.0\nsamples = 46\nvalue = [46, 0]\nclass = yes"] ;
25 -> 33 ;
34 [label="thalachh <= 132.5\ngini = 0.5\nsamples = 33\nvalue = [17, 16]\nclass = yes"] ;
24 -> 34 ;
35 [label="gini = 0.0\nsamples = 5\nvalue = [5, 0]\nclass = yes"] ;
34 -> 35 ;
36 [label="caa <= 0.5\ngini = 0.49\nsamples = 28\nvalue = [12, 16]\nclass = no"] ;
34 -> 36 ;
37 [label="trtbps <= 179.0\ngini = 0.401\nsamples = 18\nvalue = [5, 13]\nclass = no"] ;
36 -> 37 ;
38 [label="gini = 0.36\nsamples = 17\nvalue = [4, 13]\nclass = no"] ;
37 -> 38 ;
39 [label="gini = 0.0\nsamples = 1\nvalue = [1, 0]\nclass = yes"] ;
37 -> 39 ;
40 [label="restecg <= 0.5\ngini = 0.42\nsamples = 10\nvalue = [7, 3]\nclass = yes"] ;
36 -> 40 ;
41 [label="gini = 0.0\nsamples = 5\nvalue = [5, 0]\nclass = yes"] ;
40 -> 41 ;
42 [label="gini = 0.48\nsamples = 5\nvalue = [2, 3]\nclass = no"] ;
40 -> 42 ;
}